nep4 2 O H 
cutoff 8 4 716 97
n_max 4 4
basis_size 12 12
l_max 4 2 0
ANN 30 0
  1.6169198e-03
 -8.2776486e-04
  3.7339987e-04
  6.2261662e-04
 -1.3902442e-03
 -2.3328762e-03
  1.7077666e-03
 -1.5833242e-03
  2.5073169e-03
 -2.0532198e-03
 -1.0439147e-03
  2.3067375e-03
  3.2404070e-03
 -1.4012682e-03
 -2.1791207e-03
 -4.0389475e-04
  3.7794781e-04
 -2.9208888e-03
 -2.5213724e-03
  5.6485878e-04
  1.8547853e-03
  3.8727844e-01
  2.0969680e-03
  9.9967862e-04
 -2.4982537e-03
 -1.2652405e-03
  1.0775141e-02
  4.4988643e-05
 -2.2062762e-03
 -1.2035206e-03
  5.0228486e+00
 -5.2940292e+00
 -5.0801830e+00
  1.7842807e+00
  1.3327683e+00
  1.0839165e+00
 -4.6346206e-02
 -3.9607868e-01
 -1.0395566e+00
 -1.1214846e+00
 -9.4830364e-01
 -8.8119662e-01
 -8.5152328e-01
 -3.2661371e+00
  1.9833823e-03
 -2.3751178e+00
 -3.4006639e+00
  6.8217564e-01
 -1.0771338e+00
 -7.6309711e-01
 -7.9031426e-01
 -3.0043068e+00
  1.8307490e+00
 -3.2050669e-01
 -8.3472760e-04
  6.1822617e-01
 -4.7178578e-02
  6.1367010e-04
  1.6895827e-02
  8.6489163e-02
  1.3527262e-03
 -1.3878231e-04
  4.2812652e-03
  2.9033778e-04
 -1.1231559e-03
  1.8408120e-03
  1.9240598e-03
  8.5425260e-04
 -1.3486790e-03
 -1.3222821e-03
 -4.5626438e-03
 -2.7404525e-03
  2.0824382e-03
 -6.8950377e-02
 -1.1317256e-03
  3.2947760e-03
  6.9364917e-04
  8.6938607e-04
 -1.4787907e-03
 -2.2362967e-04
  6.2172115e-04
  3.1259569e-04
  4.4297026e-03
  5.3196261e-03
 -2.2639707e-04
  1.2506220e-03
  4.6818575e-04
  2.6255846e-03
 -4.5485427e-03
  1.4619199e-03
 -2.8090882e-03
 -2.2759628e-03
 -4.3754587e-03
  3.5663764e-03
  2.7047985e-03
  2.8063273e-03
 -1.3407936e+00
 -1.3596786e-03
  2.0850282e-03
  9.8038965e-04
  1.3868556e-04
 -5.2370108e-04
  3.7177229e-01
  1.2550504e-03
 -3.3406098e-03
 -3.5588883e-04
  1.6546967e-03
 -3.9727618e-03
  2.2435933e-03
 -3.9751944e-03
  1.4014747e-03
  2.8777134e-04
  3.6274916e-03
  2.1382337e-03
 -2.9229417e-03
  2.4835439e-03
 -1.6487606e-03
 -2.8154475e-04
  3.1759910e-02
 -6.0237963e-03
  6.1979932e-05
 -5.1694456e-04
 -1.0259356e-03
 -4.0010526e-03
 -2.8764820e-03
  2.1925769e-03
 -3.3963125e-03
  9.5247210e-04
 -7.1833679e-04
  1.4539488e-03
 -9.2617580e-04
  3.8683982e-04
 -1.0718732e-03
  4.7365441e-03
 -4.2648884e-03
 -2.7792407e-03
  1.3610885e-03
 -1.2590268e-03
 -1.7823877e-03
 -1.1695959e-03
  2.3046101e-05
  2.1013708e-03
 -6.7933061e-04
  3.0811731e-04
 -6.1630397e-03
 -3.5431667e-03
  8.1842294e-04
 -3.8627656e-03
  4.3411357e-03
 -4.6566408e-04
 -2.4428651e+00
  4.5270071e+00
  6.3594575e+00
 -2.8458207e+00
 -7.1447916e+00
 -2.8736043e-01
  3.5203135e-01
 -3.2874454e-02
  3.9514410e-01
  2.6390257e+00
  3.1381326e+00
  1.0210736e+00
  5.7040397e-03
  5.8971304e-01
  2.0012889e+00
  2.4772041e+00
  2.7082999e+00
 -2.0913451e+00
  1.7307366e+00
  3.2802444e+00
  1.7953662e+00
  3.3298435e+00
 -2.1348720e+00
  6.6446477e-01
 -8.7497786e-02
 -5.5145130e-02
  5.2202916e-01
 -2.1525258e-03
 -5.3048378e-01
  1.1731773e-02
 -4.6827853e-01
 -3.0548884e-02
  3.2273564e-01
  3.4894022e-01
 -9.1447783e-01
 -4.4554630e-01
  1.2512429e-01
 -1.5786138e-01
 -3.7408936e-01
  5.3671405e-02
  1.4432326e-02
  1.9631760e-01
 -2.5747213e-01
 -3.9733809e-01
 -1.3383697e+00
 -8.6036050e-01
  1.9223108e+00
 -4.1323156e+00
  4.8130041e-01
 -1.1501631e+00
 -1.1762283e+00
  1.7663596e+00
 -1.3977778e+00
 -7.4195024e-04
 -1.2738110e+00
 -4.1544583e-01
  1.1776304e-01
 -4.7503198e-03
 -1.2302553e-01
  1.3829352e-01
  4.7208546e-03
 -2.8387431e-02
  3.6226891e-03
  4.0278351e-03
 -1.8655768e-03
  8.3442070e-02
 -9.0022582e-01
  1.5068573e-03
  1.7815509e-03
 -7.6143362e-05
  1.8550485e-03
 -5.0249234e-02
  3.6610346e-03
 -1.1251216e-03
  2.2492826e-04
  3.7480090e-04
 -9.6430705e-04
  2.9583646e-03
 -1.4303849e-03
  6.2144414e-04
 -3.9859284e-03
 -2.3376649e-04
  9.6936524e-04
 -2.9352063e-03
 -1.1728703e-02
 -9.6766744e-04
  8.6777331e-04
 -1.8757483e-04
 -2.1754098e-03
  2.9164408e-03
  7.3898584e-01
 -1.8780770e+00
 -2.3339064e+00
  7.4400115e-01
 -5.5091554e-01
  1.7496717e-01
 -5.1251215e-01
  5.3260672e-01
  3.1186324e-01
 -2.7439400e-04
 -2.8106794e-01
  1.3394548e-01
  2.2664931e+00
  3.9022779e-01
  2.6096178e-02
 -9.6023977e-01
 -4.1645628e-01
  3.0491951e+00
  1.6646019e+00
 -7.4426180e-01
 -8.1695080e-01
 -2.4866286e-01
  8.3438927e-01
  3.5767134e-03
 -7.9032881e-03
 -7.8454867e-02
  3.4870688e-02
  2.6201621e-01
  2.5723942e-03
 -3.8007684e-03
  6.9947320e-04
 -5.7635433e-03
  1.7859782e-03
 -4.7173477e-03
  2.0579232e-03
 -1.1297609e-03
  2.0944860e-03
 -1.7904339e-04
  2.2891893e-03
 -1.5961288e-03
 -8.7355287e-04
 -2.4517196e-01
  3.1430968e-03
 -3.2758492e-04
  1.4048233e-03
  1.4517496e-03
 -9.1523933e-04
  2.8707853e-03
  2.4164768e-04
 -4.2527640e-04
  2.3563236e-03
  7.4286222e-01
 -2.7438744e-03
  6.0667418e-04
  2.1412200e-03
 -6.8212248e-05
  8.3908876e-03
 -1.4174341e-03
  6.0093757e-03
 -3.0987099e-04
 -7.2590034e-03
 -3.4888738e-01
  5.8839446e-01
 -2.3176908e+00
 -1.6560121e+00
  1.9429253e-01
  2.1252124e+00
  9.6670669e-01
 -5.0799185e-01
 -2.2558472e-01
 -7.3746946e-03
  1.1893131e+00
  4.2169619e-01
  5.1528867e-02
  1.2962980e-03
 -1.1003174e+00
 -4.3434381e+00
  8.7614069e-03
  1.0016436e-01
  2.6537184e-04
 -3.0763613e-02
 -2.0794232e+00
 -1.3223442e-03
 -1.1428801e+00
 -4.6986911e-02
 -7.5639077e-02
  1.6527065e+00
 -2.8862252e-03
 -7.1613427e-04
 -5.6844219e-03
 -1.6664667e-03
  6.9050050e-01
  7.8363385e-04
  1.5973526e-01
 -2.3503881e-03
 -6.1375342e-02
  5.7277364e-01
 -8.5366174e-04
  3.3407263e-04
  3.8544101e-01
 -1.4592162e-03
  2.6154989e-01
 -3.2532746e-01
 -9.8106870e-04
 -1.9704639e-03
  2.8769861e-03
 -2.4460897e-02
 -1.8249502e-02
  4.8940843e-03
 -1.4676243e-03
  2.1720866e-03
  4.1089153e+00
  2.2408931e-04
 -3.1791641e-03
  7.8338734e-04
  5.4883416e-04
 -2.8956560e-03
  7.7755959e-04
  2.1018423e-03
  4.8986124e-04
 -3.8104367e-03
 -1.5862365e-03
 -2.3834917e-05
  4.3500476e-03
  1.1279157e-03
  3.9636143e-03
  2.0042677e-01
  2.9487195e-03
  1.7648401e-04
 -3.1740353e-03
  1.8480097e-04
  9.6863782e-04
 -1.7191357e-03
  6.6578935e-04
 -2.5055024e-03
 -1.6507995e-03
 -2.3480183e-03
 -9.4263494e-04
 -2.4782476e-04
 -3.8302175e-03
 -5.6744977e-03
 -2.1019517e-03
 -2.8407844e-03
 -4.2977533e-03
  5.9189356e-04
  1.1030691e-03
 -2.6090315e-03
  7.6062846e-01
 -9.3512773e-04
 -8.9101732e-04
 -1.2775499e-03
  2.8834878e-03
  4.9078010e-04
  2.2180513e-03
  1.4491146e-03
 -4.2344874e-04
 -2.5441491e-03
 -9.7144796e-03
 -4.7168680e-03
 -1.6229617e-04
 -3.9206571e-03
  8.4279571e-04
 -5.1215512e-04
  1.0089157e-03
  1.9382432e-03
  2.0685410e-03
 -2.3844182e-03
  3.2992137e-03
 -5.3296564e-03
  5.8077724e-04
 -7.4181380e-04
  5.2468304e-04
 -5.0624419e-04
  4.0311217e-03
 -1.0258942e-03
 -4.4418726e-04
 -4.4271946e-03
  8.1583118e-04
  2.5053427e-03
  1.2462377e-03
 -3.5181764e-01
  7.2039780e-03
  8.0246353e-01
 -1.0139872e+00
 -8.9424872e-04
 -3.8824655e-02
 -5.2987367e-01
  2.3443874e-03
 -3.4523193e-02
 -5.8911871e-03
 -7.0866793e-01
  6.4229035e-01
  6.8495702e-04
  6.6435315e-02
 -4.3943468e-03
 -1.6722668e-02
 -2.1171050e+00
  6.9669023e-04
 -2.9013285e-03
  5.5540535e-03
  3.5436955e-01
 -1.5538894e+00
 -3.8049725e-04
 -8.8191926e-01
 -1.7322762e-03
 -2.8834245e-03
 -1.5988220e-02
  1.9187927e-03
 -1.8809888e-03
 -1.1730550e-03
 -4.9716407e-03
  6.4771724e-01
 -1.8593093e-03
  1.6740926e-03
 -3.3813389e-03
 -2.1403623e-03
 -2.1447376e-03
 -6.5887568e-04
  1.4863999e-04
  9.3114097e-04
 -2.3395526e-03
 -4.5990606e-04
  4.9762167e-03
  8.0244924e-04
  5.2599073e-04
 -2.8085636e-03
 -3.2655156e-04
  1.8919283e-04
 -1.2163727e-03
  3.4615822e-04
  3.7066303e-03
  1.6917398e-03
  2.4577826e-03
  2.6556070e+00
 -4.1549751e-03
 -3.7553483e-03
 -4.0433049e-05
  3.2046498e-03
 -2.9708976e-03
 -1.5987861e-03
  4.4826712e-03
  1.4016208e-01
 -7.2604406e-01
  2.5216234e-01
 -8.7339419e-04
 -7.9284705e-02
  9.6212626e-02
 -7.8723434e-04
  4.2715424e-01
  1.2174593e-01
  4.7195379e-02
 -8.9204353e-01
 -4.4574723e-02
 -6.3074366e-03
 -5.8855964e-03
  2.9231906e-02
  1.2090467e+00
 -1.0956897e-01
  7.6194084e-04
  9.9036412e-04
  1.0310254e-01
  1.0941018e-01
 -1.4470387e-02
  1.2557859e+00
  2.0454818e-04
  1.2920954e-04
  6.5750573e-03
 -2.2740846e-03
 -1.8118366e-04
  3.4080427e-03
 -4.3722844e-01
  3.0067832e+00
 -2.8553477e-01
  4.4193074e-01
  6.5635496e-01
  5.4233246e-03
  2.6102909e-01
 -5.0527483e-01
  4.4031921e-01
  1.0905489e-03
 -2.1574393e-04
  4.9714651e-03
 -8.1778342e-01
  8.2697436e-02
 -3.5065243e-01
 -8.9381032e-02
 -3.0129714e-02
 -1.9644418e-01
 -7.5157387e-03
  1.0828662e+00
  1.0088100e-01
  3.8406067e-02
 -5.5399150e-01
 -4.2398921e-03
  1.1735170e-01
  1.0544911e-02
 -7.5426143e-01
 -3.6123586e-03
  3.1456079e-03
 -1.2333922e-03
 -1.4167282e-03
  1.7337067e+00
 -7.1004473e-02
  1.8192010e-01
 -2.2675670e-03
  5.8457631e-01
 -1.5297530e-03
 -1.8496839e-03
 -9.7996449e-01
 -8.0752867e-01
  5.6882840e-01
  1.1057378e+00
 -3.3504532e-03
 -2.3953870e-01
 -9.0947226e-02
 -6.8503447e-02
  7.9349273e-01
 -2.4554019e-01
  4.6141138e-03
 -4.4756714e-01
  1.8704197e-03
  2.0356230e-01
 -2.4553674e-04
 -2.5641688e-03
  3.5594439e-04
 -2.5362521e-03
 -7.8676362e-04
  1.8824836e-03
 -2.6174602e-03
  2.9706643e-03
 -2.7845786e-03
  1.1774929e-03
 -5.4670917e-03
 -3.3451032e-02
  1.1051105e-03
  6.6608848e-04
 -1.9305476e-03
 -3.1478922e-03
 -2.3224023e-03
  1.9988457e-03
  2.3684560e-03
  8.5956481e-04
  2.5496997e-03
  3.5842566e-03
  1.2109609e-03
 -3.3533045e-03
  1.2801785e-03
 -5.1473873e-04
 -2.1662849e-03
 -6.6104834e-03
 -6.4356932e-03
  7.4767193e-04
 -1.5570794e-03
 -2.9387954e-03
 -4.8174877e-03
 -5.9120469e-03
  3.5619916e-04
 -2.3141007e-03
  3.0274596e-03
  3.4928294e-03
 -2.5996199e+00
  1.3283364e+00
 -1.7980918e+00
  8.5810483e-01
 -2.1061521e+00
 -1.1653305e+00
  2.8609851e-01
 -1.7575403e-01
  1.1822857e-01
  1.9349658e+00
  8.8434410e-01
  1.7009065e-01
  3.2664213e-01
 -1.2761648e+00
  6.4562179e-02
 -1.8545755e+00
  1.0845790e+00
 -1.4094191e+00
  4.1619402e-01
 -2.1622735e-01
 -4.9658287e-01
 -5.5745018e-01
 -1.2921816e-01
  1.1439400e+00
 -9.7824395e-02
  1.8932170e-04
  1.0017282e+00
 -3.9247298e-03
  8.9832128e-04
  1.4136006e-01
  1.4746434e-02
  7.0774485e-04
  6.8802186e-03
  5.2631837e-01
  1.9548135e-03
 -5.6139356e-04
 -9.8946460e-02
 -1.5259248e-03
  1.5458913e-03
 -1.7719944e-03
  2.9811049e-03
  1.4393514e-03
  3.0013449e-03
 -1.8392277e-03
 -3.4613912e-03
 -2.9464520e-03
  1.3146831e-03
 -3.5459010e-03
  2.7849426e-04
  7.7201903e-04
  1.7012984e-03
 -1.3625050e-03
  1.5960663e-03
  1.4561439e-03
 -5.6028580e-03
  1.0684504e-03
 -2.2864707e-03
  4.2137742e-04
 -2.9032194e-04
 -5.5632007e-04
 -8.1593776e-01
  8.6767650e-01
  2.8332299e-01
 -3.5606691e-01
 -1.6578186e+00
  8.6341238e-01
  5.8473611e-01
  5.6354243e-01
  1.4185972e+00
  7.6876944e-01
  7.7399737e-01
  3.8258234e-01
  2.2121406e+00
  2.0444374e+00
  6.8472379e-01
  3.9813262e-01
  6.0787463e-01
  1.7671674e+00
  3.5120232e+00
  2.5068292e-02
 -3.8040116e-02
  2.3694141e+00
  1.1559217e+00
  1.9349048e+00
 -9.3882912e-01
  1.2721087e+00
 -1.0559283e+00
  4.5069736e-01
 -2.8549938e-04
 -1.9077716e-02
  4.8732618e-03
 -5.2558910e-04
  1.0281810e-01
  1.0626527e+00
 -1.8818412e-03
  1.8212139e-03
 -1.3822222e+00
  6.2729390e-03
  5.6012283e-04
  1.9416634e-03
 -1.8000426e-03
 -7.4903198e-02
  5.3305267e-03
 -9.5265330e-04
  1.6304082e-03
  2.8961849e-01
 -8.1316121e-03
  4.7613587e-03
  2.1423379e-04
 -7.3428801e-04
 -3.3959667e-03
 -3.6972063e-03
  4.4514574e-03
  7.2386244e-04
 -1.8242302e-03
 -1.1549143e-03
 -1.9461088e-03
  9.5001090e-04
 -3.7447218e-04
 -1.7954594e-03
  1.9138181e-04
  1.5078548e-01
 -4.9774861e-04
 -2.8218927e-03
 -9.4491959e-04
 -3.5740074e-03
  6.2297529e-01
  3.1376113e-03
 -4.3215482e-03
 -4.6898355e-03
 -2.0146230e-03
  2.0288213e-01
 -9.2622772e-02
  1.1294719e-03
 -2.0470349e-03
  2.6732921e-03
 -2.0492030e-03
 -1.6001140e-01
  9.6728478e-04
 -1.1274477e-03
  4.7282330e-03
 -1.6398602e-03
 -5.1947078e-03
 -4.0986002e-03
  2.6538314e-03
  8.4535155e-04
  1.9305096e-03
  1.3890803e-03
  9.0671470e-05
  2.7435799e-03
 -8.2516205e-04
 -6.9410470e-04
 -8.1063627e-04
  8.8000949e-03
  3.0215180e-03
  9.3211769e-04
  9.7122334e-04
 -1.2890864e-03
  1.1800017e-03
 -2.4984148e-03
 -1.7903381e-03
 -5.3191255e-04
  7.0794189e-04
  2.7382837e-03
  5.0928502e-04
  1.9888941e-04
 -2.8933801e-03
  6.9037941e-04
  2.9102941e-03
 -8.7752542e-04
 -4.0723404e-04
  1.9430483e-04
 -3.3776218e-05
 -4.9934704e-03
 -1.0184953e-03
 -1.4798371e-03
  2.3235939e-03
  9.1692334e-04
  6.5636123e-05
  2.3450877e-05
 -2.6996818e-01
  1.0416574e+00
  8.1110755e-03
 -8.5957610e-05
  7.9500576e-04
 -3.4384727e-02
  6.2090033e-01
 -5.1198057e-03
  1.8038221e-03
 -1.2993854e-03
 -6.2497356e-04
  3.5416082e-01
 -3.0762085e-01
 -1.2122947e-03
 -3.1148335e-02
 -3.4288263e-03
  9.0687710e-05
 -9.4103813e-02
 -1.8341671e-05
  4.8596123e-03
  1.8904356e-02
  7.6696267e-03
 -9.7944504e-03
 -6.5911547e-03
  1.1474809e-03
 -1.0910785e-03
 -2.6895641e-04
  1.9574140e-03
 -9.7336189e-05
 -2.9774786e-03
  3.7347063e-01
 -1.9043727e+00
  1.0373979e+00
 -1.5693096e+00
  1.0938737e-02
  7.2164673e-01
  1.0075426e+00
  4.5499764e-03
 -2.0661820e-02
 -3.0210730e-01
  2.2959048e-03
 -1.2494379e-03
  4.5062538e-04
  7.3080668e-03
  7.8047672e-04
  1.0139853e-04
  2.1504134e-02
  3.0929521e-03
 -1.1425428e-03
  7.0700806e-04
  9.8017999e-04
  1.1485763e-02
  3.7749272e-03
 -2.4499040e-04
  1.8891324e-03
  2.9530067e-03
 -1.1001069e-03
  8.8958826e-04
 -2.0814270e-03
 -6.9357746e-04
 -3.8558600e-04
 -4.2567602e-03
 -2.3800679e-03
  2.8388882e-03
 -8.4150169e-04
 -1.2352848e-03
 -2.4970500e-03
 -1.1665828e-03
 -9.8259351e-04
 -2.1410519e-03
  2.4677820e-03
  1.3437585e-03
  1.6036674e-03
 -2.1806471e-03
 -3.4956536e-03
  1.5247910e-03
  4.5191892e-03
  6.1802252e-04
 -1.7158900e-03
 -1.9132448e-03
 -3.3953635e-04
 -2.8913624e-03
 -6.6559942e-04
  1.8714766e-03
 -1.4198180e-03
 -5.4636085e-04
  1.9206750e-03
  4.5131403e-03
 -1.1637310e-03
  2.6486129e-03
  6.2655509e-01
 -2.6336169e+00
 -3.8582709e+00
  3.5554841e-01
  1.1724666e-04
 -1.4295709e+00
  1.8193213e+00
  4.0892124e-01
 -8.8213915e-01
 -1.2579018e+00
  1.6171646e+00
 -1.2851968e+00
  1.8680371e+00
  9.7616158e-02
  1.0143796e-01
 -1.2525812e-01
 -9.8352969e-01
  1.5910853e+00
  7.6408987e-04
  2.1508680e-01
 -2.8838110e-01
 -4.2302427e-01
  6.7625231e-01
  1.2265928e-03
  6.4790540e-04
  1.2490535e-03
 -1.4172222e-01
  1.3885536e-02
  5.4808720e-03
  1.6204716e-04
  1.0747263e-03
 -1.5222263e+00
 -1.1984836e-03
 -1.4510802e+00
  4.4914526e-03
  2.7472728e-01
  1.1551256e-01
 -1.1496502e-03
  5.0218838e-01
 -3.6684997e-04
 -8.7699795e-01
 -3.7980314e-02
  1.0369441e-03
 -5.3669875e-03
 -8.0287337e-01
  2.3454495e-03
  7.0854735e-01
 -1.9476078e+00
  1.1016560e-01
 -5.4880680e-04
  5.0801826e-01
  1.0821034e-03
  7.7252227e-01
 -5.4247701e-01
  2.0578010e-03
  2.0925264e-04
 -4.9132165e-01
 -6.7728782e-01
 -1.6725548e-03
  1.1601736e-01
 -2.8612229e-01
 -3.2344489e+00
 -1.0522011e-03
  6.5107572e-01
  4.0735900e-03
 -4.3739634e+00
 -1.9956605e+00
  2.7594429e-01
  2.3212929e+00
  3.2967845e-01
  1.7964014e+00
 -4.2009825e-01
 -9.5483393e-04
  3.4355327e-02
  1.0969357e+00
 -8.0998741e-02
 -1.2113370e+00
 -9.4122803e-01
 -7.4719185e-01
  4.1043777e-03
 -3.2286582e+00
  2.5365022e-01
  2.2324724e+00
  3.8722667e-01
 -5.3079677e-01
 -1.1791238e-03
 -6.1952561e-01
  1.7985672e+00
  2.5879899e-01
  1.3516742e+00
  6.1337614e-01
 -8.0782777e-01
 -1.9747416e+00
  2.5074312e-01
  8.8505322e-01
 -1.3195986e+00
  6.9249482e-03
 -3.0544594e-01
 -1.2087836e+00
  1.1388732e+00
  7.6083708e-01
 -7.3135340e-01
 -3.2466991e+00
 -9.6225369e-01
  8.8252556e-01
  2.6124358e+00
 -1.4494099e-01
 -2.3874204e+00
 -4.6019262e-01
 -8.1977153e-01
  2.4101232e-01
 -1.6721787e+00
 -4.4468778e-01
 -1.2277830e-01
  4.7872674e-02
 -9.2316866e-01
  1.3923156e+00
  4.5332685e-03
  8.8355283e-04
  1.5170457e+00
  1.3111499e-01
 -3.0847443e-03
 -7.3873093e-03
  5.0126046e-01
 -1.4322695e-02
  1.6347542e-03
 -1.1439986e+00
 -5.4199313e-04
  1.4169579e-03
 -3.4920862e-01
 -3.9641207e-01
 -5.9770852e-01
 -1.2057827e-02
  2.7390843e-04
 -2.2366412e-03
 -5.1693234e-04
 -4.4145407e-03
 -3.9115301e-03
 -5.1283231e-03
 -4.3768101e-04
  2.7441719e-01
 -5.4473174e-04
 -5.9570547e-04
  2.5984773e-05
 -1.9706853e-03
  2.6988201e-03
 -9.0362935e-04
 -5.7640777e-04
 -1.4397281e-04
 -3.4233034e-03
  1.0292408e-01
 -9.4083928e-02
 -2.4222145e+00
  2.5002909e-01
 -9.3552405e-01
  1.0812523e+00
 -1.5545807e+00
 -8.6520499e-01
  1.5216193e-01
 -5.4885429e-01
 -6.0288441e-01
  1.3349541e+00
 -2.9703777e+00
  7.1386015e-01
 -5.9557699e-02
 -5.3587079e-01
 -6.4464289e-01
 -1.6712066e+00
  2.8513727e-01
  3.3919173e-04
 -1.9725464e-01
 -1.9967645e+00
 -1.8175069e-02
 -4.5048944e-03
 -1.2895708e-01
 -2.9528442e-01
  4.1263607e-01
  6.4813298e-01
 -1.4723144e-02
 -1.3710218e-03
  6.9327283e-01
 -8.1544340e-01
 -7.7772647e-01
  1.6902683e+00
 -2.7871122e+00
  3.5075887e-04
 -2.9936693e+00
 -3.4995062e+00
 -2.9021826e-01
 -2.9969913e-01
  2.1657829e+00
  2.0905955e-02
  7.2841632e-01
 -7.7159156e-04
 -3.5279656e-03
 -1.0211699e-03
 -6.6177896e-03
 -3.1195371e-03
 -1.0888307e+00
 -1.9316618e+00
  1.1299394e+00
 -2.3374023e+00
 -6.4020276e-01
 -2.8496699e-02
 -1.3035144e+00
  3.4092966e-02
  2.0718317e-01
  4.2646943e-04
 -4.0050941e-03
  9.3725875e-02
  1.6677203e-03
  5.4431701e-04
  4.0929220e-03
  2.6040690e-03
  2.2623553e-03
  4.0769475e-03
  9.9257333e-05
  5.8854825e-04
  3.0641858e-03
  4.2452427e-04
 -8.1778578e-03
  3.0323924e-03
 -7.3915231e-04
  2.2484695e-03
 -8.5012484e-03
 -2.3112244e-03
 -2.6834090e-03
  4.5599896e-03
  1.9175067e-03
  7.1704213e-04
  3.8231965e-03
 -2.2859941e-03
  5.6770854e-03
 -1.9730553e-03
 -1.7169956e-03
  1.1291957e-04
  3.0869069e-03
  2.5251932e-03
 -4.4787643e-03
 -1.0215258e-03
 -1.1689560e+00
  5.0943065e-01
 -4.6753249e-01
 -1.0055799e+00
 -1.4250720e+00
  8.3057624e-01
 -8.6910856e-01
  1.7826126e+00
  1.5547979e+00
 -2.2339339e+00
 -1.9016750e+00
 -1.5974774e+00
  2.4586468e+00
  4.8644939e-01
 -3.1594024e+00
 -1.8996040e+00
 -2.7328472e+00
  2.6128013e+00
  5.6321096e-01
 -8.2849497e-01
  7.6740697e-02
 -2.1385786e-01
 -1.7411016e+00
  2.9405761e-01
 -1.0376024e+00
 -6.4028990e-01
  2.0873187e+00
 -2.6111460e+00
 -1.4808849e-02
 -4.0361717e-01
 -2.7553127e+00
  4.2506233e-03
 -1.0653211e+00
  8.4320617e-01
 -5.5345911e-01
 -1.3096629e+00
  1.3676629e+00
  2.0277109e+00
 -8.8616222e-02
 -1.6782027e+00
  2.0914869e-01
  8.0772758e-01
  3.2963878e-01
 -6.9414061e-01
  2.5260179e+00
 -2.9075307e-01
  1.8653810e-02
  6.1411848e-03
  1.2364219e-01
 -2.1150568e-01
  1.0914502e-03
  1.8572938e-01
  5.7154772e-05
  3.1527849e-03
  2.1285503e-01
 -5.7064623e-01
  1.1677961e+00
  1.6959547e-04
 -7.4565476e-03
  2.0630242e-01
  9.9110627e-04
 -4.6496280e-03
 -2.8067720e-03
 -9.1814098e-04
 -1.1774265e-03
 -3.4101831e-05
 -1.1671736e-03
  9.9595147e-04
  4.6530389e-04
 -6.3027632e-03
  1.6202191e-04
 -4.1241301e-03
  3.2973348e-03
 -7.9634530e-04
  1.0065719e-03
 -1.7127567e-03
  6.8290904e-04
  4.8387068e-04
  2.4568404e-03
  7.3342654e-04
 -9.7307068e-04
  1.6806838e-04
 -3.2157567e-03
 -6.8683852e-04
  1.3793819e-04
  1.6275708e-02
 -2.7005272e-03
 -2.7762824e-03
 -6.5373187e-04
  1.5456663e-03
  1.2177607e+00
 -6.7476906e-02
  5.1403588e-01
 -1.3192039e+00
  1.4227273e+00
 -5.8685935e-01
  6.5777308e-01
  5.7313168e-01
  4.3764118e-02
  6.1240005e-01
  2.4255468e-02
  7.6654851e-01
  3.3107343e-01
 -1.2317679e+00
 -1.9032449e-01
  2.2220559e+00
 -8.6141497e-01
  2.3427312e+00
  5.8534288e-01
  1.3776794e-01
  6.1499935e-01
 -7.6163011e-03
 -5.4256016e-01
 -1.3991250e-01
 -2.9472679e-01
 -7.7505723e-02
 -1.0123702e+00
 -1.3894242e+00
  2.2216593e-03
  5.0014520e-01
 -3.0615344e-03
 -1.8822415e-03
  5.3564426e-03
 -5.0008260e-03
  9.7819781e-03
  7.0871234e-01
  3.1546602e-01
 -2.9236370e-01
 -6.3234894e-03
  1.1931539e-01
  1.8037580e-02
  4.6558613e-03
  3.0347767e-01
  1.1949864e-02
 -8.9992089e-03
 -8.4528764e-04
 -1.4933262e-03
  1.5253137e-02
  2.2492260e-03
 -5.7676365e-03
 -3.5176095e-02
  8.3548861e-05
  1.1187705e-03
 -9.4393943e-04
  1.5196782e-03
 -2.1853973e-03
 -4.2704511e-03
 -5.4591247e-03
 -2.1892223e-03
 -4.2869453e-03
 -2.4400819e-03
 -2.7756703e-03
  5.8958563e-04
 -2.5942395e-03
  2.9950570e-03
 -2.9768329e-04
 -2.6922927e-03
  4.2477148e-03
 -1.9825844e-04
 -3.5044067e-03
 -2.6356751e-02
  2.5422601e-03
  1.4886287e-03
  1.8155779e-03
  3.7619381e-03
 -7.1479176e-04
 -3.5581240e-04
 -4.6931393e-03
  1.7940551e-03
 -1.4979083e-03
  6.1576162e-03
 -2.0163292e-03
 -1.5461890e-03
  4.2439951e-04
  3.3759493e-03
  1.2991473e-03
 -1.7269061e+00
  2.8443332e-03
  3.1419243e-03
 -1.6569872e-03
 -1.4451517e-03
 -4.0859364e-02
 -4.5218611e-01
  8.3802772e-01
 -9.3575284e-02
  3.1153616e-01
 -1.2407751e-01
 -3.8219940e-02
 -1.5909319e-03
  3.1246564e+00
  3.8840196e-01
  1.0424635e-01
 -7.9120815e-01
 -3.1892238e-03
  1.3726067e-03
  4.8467168e-03
 -2.7444999e-05
 -2.2293695e-03
 -7.5000748e-03
  1.0435252e-03
  1.1004815e+00
  1.0453781e+00
 -9.9518802e-04
 -1.4467136e-04
 -1.2981573e-01
 -2.2501244e-01
  3.0032443e-04
  8.0982996e-03
  2.1788848e-03
 -4.8288953e-04
 -2.2521892e+00
  1.1321030e+00
 -4.5617209e-03
  2.0941354e-02
  6.5372604e-01
 -3.7727267e-01
 -4.6224043e-01
  4.9500129e-01
 -1.4113696e+00
 -1.8707589e+00
 -4.3424690e-01
 -1.4605346e+00
  1.9868236e+00
  7.3740351e-01
 -1.2259619e+00
 -1.7114942e+00
  6.7739964e-01
  2.2924159e+00
  1.9033389e+00
 -9.2027760e-01
 -8.0919653e-01
 -2.2598896e+00
  4.3925652e-03
  1.1369582e-01
  3.1825483e-02
 -1.6326118e+00
 -6.7485073e-03
 -1.1913968e-01
 -2.2283986e-03
 -1.1907440e-03
 -1.6999898e-03
 -7.9792179e-04
 -1.8706811e-03
 -5.3454954e-03
  1.0566709e-03
 -5.6731571e-03
  1.0064493e+00
 -2.7884883e-03
  8.8464308e-01
  6.3220067e-03
  1.1715401e-03
 -6.3054594e-03
 -1.7139332e-03
 -3.7199382e-03
  3.2733954e-03
  3.4896177e-03
  1.2765896e-03
  3.4509380e-03
  5.0763885e-04
  2.3675140e-03
  4.2337594e-03
  9.3911338e-05
  1.0441731e-03
  1.1762511e-04
 -5.5772630e-03
  4.6526210e-04
  2.3951067e-03
 -1.7694476e-04
 -1.3499591e-03
  3.6532606e-04
  1.4066835e-01
 -1.1622589e+00
 -7.3014118e-02
 -1.4093000e-02
  5.2729332e-01
 -1.4907408e+00
 -6.5632063e-01
 -3.9747697e-01
  1.0330945e-02
 -7.2782981e-01
 -3.7763357e-01
  1.4002864e+00
  2.2129905e+00
  3.2753277e+00
 -5.8470708e-01
 -1.0599446e+00
 -1.1425632e+00
  1.2515072e+00
  1.0244436e+00
 -7.2588080e-01
 -7.9070449e-01
 -1.8728571e+00
  1.4917594e+00
  8.4960824e-01
 -3.5426554e-01
 -1.1310464e+00
  1.6904166e-01
 -4.4432576e-03
 -4.6820313e-02
 -4.4712070e-02
  3.6054215e+00
 -5.4518676e+00
 -1.6004624e+00
  2.9392931e+00
  3.0040989e+00
 -5.0220919e-01
  3.9959445e+00
  1.5419699e+00
 -2.5509527e+00
  3.8860550e+00
  3.2249207e+00
  3.1253049e+00
  3.7555590e-01
 -2.6585584e+00
  4.0412216e+00
  1.0883335e+00
  1.3683689e+00
 -1.8191970e-03
 -2.5784442e+00
 -6.3636261e-01
 -2.6599988e-01
 -7.3608464e-01
  1.7255025e-01
 -8.0865294e-01
 -5.0663400e-01
 -1.6066204e+00
  3.7196958e-03
 -2.1465197e-01
  6.6211348e-04
  8.8348252e-01
 -2.6024890e-03
 -1.2269061e-03
  1.3209544e-03
 -2.0244159e-03
  1.6191171e-04
  1.1653870e-03
  1.2989303e-03
 -1.2483657e-03
  1.0626100e-03
 -2.9155595e-04
  4.1643967e-04
  9.4668649e-04
 -8.3065534e-05
  2.8306241e-03
  4.3864921e-03
 -9.9317986e-05
  8.5021253e-05
  3.9236914e-04
 -1.8092974e-03
 -7.9012243e-06
  1.6260516e-03
  1.0440766e-05
  1.9111021e-03
  4.3974728e-03
 -5.9375993e-04
 -1.5290797e-03
 -1.4012337e-03
  7.1097082e-03
  1.2035447e-03
  2.1485300e-03
  8.8553387e-04
 -6.2872078e-03
 -3.7298803e-03
  1.0864958e-03
 -8.3638439e-03
 -1.4337397e-03
  5.1208655e-03
 -2.8136168e-03
  6.7200512e-05
  9.7895786e-04
 -7.8074443e-01
  4.2331172e-05
 -1.1892863e-01
 -1.4257431e-04
  2.2203440e-03
  3.3035357e-03
  1.4955343e-03
 -1.1724198e-03
  1.3072391e-03
 -3.3306864e-03
  1.2956214e-03
  2.3958371e-03
 -1.6086496e-03
 -1.8021772e-03
 -3.9307892e-04
  2.7411757e-04
  5.5662240e-05
  2.8866897e-03
 -7.7041134e-04
 -7.8237448e-03
  1.3351249e+00
 -4.1342792e-01
  3.6492553e-01
 -3.1908449e-02
 -3.8695469e-01
 -5.7082609e-03
 -1.9097385e-01
 -8.4451646e-01
  1.4259121e-03
 -3.7074378e-01
 -1.2058573e+00
 -3.3324391e-01
 -2.4552419e+00
 -7.2868854e-01
  2.7069721e-01
  4.8780462e-01
 -1.0431660e-03
 -7.2298527e-01
 -1.7610256e-04
  1.2874105e-03
 -1.6851695e+00
  1.5935757e+00
 -1.2574038e-02
 -2.2269320e-05
  1.8719913e-01
 -8.4776199e-01
  1.8431072e-01
  1.8886954e-02
 -3.6245160e-04
  9.1230169e-02
  1.3305730e-04
 -2.4072907e-03
  3.0096766e-04
  2.0897246e-03
 -1.8959860e-03
 -1.4837159e-04
 -2.8072754e-03
 -2.5303932e-03
 -7.8554696e-04
  1.8308314e-03
  2.5720376e-04
 -2.3855963e-03
  3.3344878e-03
 -3.2419628e-03
 -3.9933657e-06
  2.6955241e-03
 -1.5097273e-02
  6.4600934e-04
 -1.2786314e-03
  2.1418198e-03
 -6.7896117e-04
 -2.1323538e-03
  1.6835816e-03
 -2.8431362e-03
  6.5006446e-03
 -1.3590958e-04
  4.8675688e-04
  3.5755994e-04
  5.3270784e-04
  7.8248524e-04
  1.8028307e-03
 -1.6144196e-03
  3.2987917e-04
 -3.4828999e-04
  4.2767064e-03
 -9.4009977e-04
 -4.2877896e-03
 -1.9433271e-03
 -7.0032605e-04
  1.6296548e-03
 -3.1627957e-03
 -3.8574679e+00
  1.1294784e-03
  5.7406141e-05
  3.2966301e-01
 -2.4953610e-03
  1.4090248e-03
 -2.1508858e-03
 -4.4281571e-04
 -1.4634195e-03
  9.8705222e-04
  9.5522904e-04
 -3.0377554e-03
  2.2411093e-03
 -5.8389981e-03
  7.6339627e-04
  2.8050151e-03
 -8.4996934e-04
  2.2118797e-03
  3.0079209e-03
 -9.5526892e-04
 -8.3458908e-03
 -1.6466846e-03
  3.7172779e-01
 -1.7154064e-03
  1.7801679e-03
 -3.3294639e-01
 -9.8727757e-01
 -6.6300720e-01
 -4.4672783e-03
 -1.1167799e+00
 -7.3548055e-01
 -1.9729477e-03
 -7.9960637e-03
 -5.9651169e-03
 -3.5489551e-03
 -8.9961465e-04
 -2.1077099e-03
 -2.4768393e-03
  1.0404144e-03
  4.6560369e-03
 -7.7951612e-04
  8.5278967e-04
 -7.0423476e-04
  1.0102023e-03
  8.4615836e-04
  2.5061080e-03
 -1.3632005e-02
  3.3299964e-02
  5.4504224e-03
  1.3890439e-03
  1.3406965e-03
  6.7235815e-04
  1.6466889e-03
 -2.5235899e-03
 -3.0368017e-03
 -8.7526615e-04
  1.1698233e-03
  2.0773921e-03
  1.6929840e-03
  1.3950480e-04
  5.1425165e-04
 -6.6519575e-04
 -2.5423788e-04
 -1.2976355e-03
  2.3376422e-03
 -9.0106437e-04
 -1.1735281e-03
 -5.8592632e-03
  3.0817161e-04
  9.4094261e-04
  1.4598763e-03
 -7.8043231e-06
  1.4690608e-03
 -3.6736939e-03
  1.9855911e-03
  5.7217939e-04
 -4.0495710e-04
 -6.0986816e-03
  2.6323625e-03
 -1.6075176e+00
  2.9194981e-01
 -1.2711823e+00
  7.1334875e-01
 -6.1811116e-02
  1.1066568e+00
  1.4788486e-01
 -3.2526022e-01
  8.5369676e-01
 -7.2868782e-01
 -1.7228038e+00
  1.6192971e+00
  6.6439646e-01
  8.8887416e-02
  1.0939331e+00
 -6.7990530e-01
  4.5511742e+00
  2.3189037e+00
 -1.0261384e+00
  1.7193662e+00
  3.3624184e-01
  5.6587398e-01
  1.7397211e+00
  1.7671220e-01
  1.2156858e-01
  1.4399478e+00
 -1.8520458e-02
  2.0343179e-03
 -1.0028270e-03
 -2.0332363e-02
  1.0379981e+00
  1.1904588e-01
 -8.7636746e-02
  8.0513120e-01
  1.5670340e-01
  7.3940963e-01
 -6.0812509e-01
  8.0909443e-01
 -1.0511335e+00
  3.4241560e-01
  6.3562608e-01
 -1.0065639e+00
  3.4455745e+00
 -2.5428796e-01
  1.1389576e+00
  7.7284825e-01
  1.4210891e+00
  2.6487792e+00
 -8.9995050e-01
 -9.2197233e-01
 -1.1865656e+00
  1.8654630e+00
  3.7461834e+00
 -4.0142748e-01
  1.4950705e+00
 -6.1770625e-02
 -7.9182227e-04
 -1.5246720e+00
 -1.1976632e-01
  1.8878670e-01
  3.0275318e-05
  8.8541378e-04
 -2.9882640e-03
  1.2517206e-03
  2.0544929e-03
  3.2025587e-04
 -1.1742502e-03
 -7.9925696e-04
  1.5576923e-03
 -1.0131386e-03
 -3.5462426e-03
 -5.0090638e-04
 -3.3876132e-03
  3.1736481e-03
  3.1393976e-03
 -3.0474487e-04
  8.6322532e-04
 -2.8332293e-03
 -3.1372507e-03
  1.1811316e-02
  1.0466702e-02
  2.2798048e-03
 -9.1739558e-04
  6.1431376e-05
 -1.7411730e-03
 -1.5820210e-03
  2.1202643e-03
  1.7172418e-03
 -7.3945278e-04
 -4.4296318e-04
 -6.3248187e-01
  1.0337508e+00
  2.0734517e-01
 -1.8621818e+00
  4.0294823e-01
 -1.0771765e+00
  2.0967202e+00
  2.5303164e-01
 -9.5374817e-01
  1.6853285e-01
  5.0065339e-01
  2.2964919e+00
  1.6953604e-03
  3.3140841e-01
 -1.5768830e-01
  1.4138705e+00
  1.4961417e+00
  1.2081865e-02
  1.7779643e-03
  1.2213270e-02
 -6.7872512e-01
  2.4727882e-01
  6.2709940e-03
 -8.7596581e-04
  9.9141604e-01
  8.3144987e-01
  7.3066628e-01
  1.4711176e-03
  1.2420523e-03
 -3.6422373e-03
  2.6050756e+00
 -5.4189043e+00
 -1.2021705e+00
  2.5880113e+00
  3.8954086e+00
 -4.5240462e-02
 -2.5385484e-01
  2.0453861e+00
 -3.6288884e-01
  6.0431439e-01
  3.2748713e+00
  1.1632485e+00
 -4.4594368e-04
 -2.4057024e+00
  1.5594308e+00
  2.0692089e+00
  1.1159948e+00
 -1.0986126e-03
 -1.6317126e+00
  2.1389514e-01
 -5.3692782e-01
  1.0549219e+00
 -1.9706783e-01
 -5.3974563e-01
 -4.0586321e-03
  2.6121101e-01
  2.5804117e-01
 -2.3339882e-02
 -5.5509750e-03
  1.0693440e+00
  1.3009077e-01
  6.0664173e-03
  5.0287127e-01
 -2.4208233e-01
  4.8573110e-01
 -4.1114207e-02
  1.0032449e+00
  2.7361619e-01
  1.1825914e+00
  1.8675408e-01
  3.5652548e-01
  4.2977056e-04
  1.1472519e-01
  7.3558360e-02
  3.8142495e-03
 -2.5593820e-03
  1.0577985e-03
  1.0786671e-01
  1.1497007e-03
  3.4706627e-03
 -1.1417823e+00
  2.3928715e-04
  3.1867558e-03
 -5.6090518e-03
  2.7555549e-03
 -1.9967780e-03
 -1.0385045e-03
  5.6730653e-04
 -1.8244149e-03
  1.2426413e-04
  2.2361929e-02
  5.8279481e-02
  3.1533442e-04
 -1.3771048e-03
  3.4071583e-01
 -2.3343155e-02
  2.3555246e-03
  4.8994657e-02
  2.0585707e-03
  2.0877925e-01
  7.7913591e-04
  2.3105443e-02
  1.7609169e-01
  3.0978704e-03
 -3.9095726e-02
  2.2256486e-03
  2.5430581e-02
  2.9552332e-01
  1.5407258e-03
  1.1471261e-03
 -3.8775723e-02
  6.5043918e-04
  7.0363209e-03
 -1.1681731e+00
  2.4381600e-01
  2.2233499e-04
  1.0621683e-03
  2.9959909e-03
 -2.0632241e-03
 -3.6065197e-03
  2.7944960e-03
  7.5288489e-02
 -2.1781721e+00
 -1.1081039e+00
  2.6244118e-03
  1.2596109e-02
 -1.5626035e+00
  1.8201990e-03
  1.5811250e+00
 -5.0368077e-01
 -1.0086631e-03
 -2.2511922e-01
  6.5994960e-01
  4.1724839e-03
  3.2138070e-01
 -2.3336732e-01
  1.0096706e-03
 -1.5679215e-03
 -8.1461459e-01
  3.0869560e-06
 -8.5413142e-04
  1.1893120e-02
  3.8721971e-03
  5.5501771e-01
  1.4520754e+00
 -2.4489635e-03
  5.6696124e-02
 -1.5861546e-01
  1.0769000e+00
  5.1581636e-03
 -1.2035472e+00
 -3.2307675e-01
 -1.9882678e+00
 -6.0379928e-01
  1.9736962e-02
  3.5002773e+00
  1.4367055e+00
 -2.1969846e-03
  2.9232395e+00
  5.5316895e-01
 -1.1145865e-01
 -4.7756472e-01
  2.5214033e+00
 -4.0514616e-04
  2.0803187e+00
 -2.4614711e+00
  2.5636072e-03
 -8.9442410e-02
 -8.3073109e-01
 -4.8944366e-04
 -7.5967357e-02
 -3.0279818e-01
  1.4493535e-01
  1.6011878e+00
  2.3912911e+00
 -2.6938575e-04
  6.6588283e-01
 -1.4879251e+00
  3.9557242e-01
  6.9903064e-01
 -6.0362124e+00
  2.7124949e+00
 -2.0998392e+00
  2.1659844e+00
 -8.4257120e-01
  1.4661794e+00
 -2.6986091e+00
  3.4482057e+00
 -5.3124142e+00
 -1.0608824e+00
 -1.6423293e+00
 -1.4928019e-01
  1.9161830e+00
  4.5348677e-01
  4.6544906e-01
 -8.7442189e-02
 -3.4350544e-01
  4.4597321e+00
 -2.5418341e+00
  3.6933320e+00
 -1.2823906e+00
 -2.1827282e-01
  1.1359801e+00
  1.6569382e+00
  2.3605103e-02
 -1.8034059e-03
 -5.6458670e-01
  8.5404031e-02
  9.7834420e-01
  1.7650398e+00
  1.1785023e+00
  7.3708409e-01
  1.5687648e+00
  9.5143431e-01
 -1.2544106e+00
  1.7427939e+00
 -2.8553798e+00
  1.2278652e+00
  2.8209224e+00
  6.5839760e-02
 -1.3697799e-01
  8.4816718e-01
  1.0300293e+00
  5.6772453e-01
 -1.4237882e-01
  6.8793166e-01
  5.5742908e-01
  1.0629917e+00
  6.5687478e-01
  1.5363787e+00
  5.0240731e-01
  8.1850785e-01
  2.0914860e-02
 -3.3113606e+00
  3.2832785e+00
 -3.5158196e-01
  1.2474879e+00
 -3.5354712e+00
  1.9153191e+00
 -3.4393325e+00
  2.6868324e+00
  2.0648780e+00
 -3.9887192e+00
  9.8901945e-01
 -1.3845507e+00
 -1.3601893e+00
  4.9576232e-01
  1.5225961e+00
 -1.9958006e-01
 -6.1996808e+00
  1.8048802e-02
 -1.8934436e+00
  1.4032396e+00
 -1.3363979e+00
 -7.8076400e-02
 -1.3140467e-01
  1.6543077e+00
 -1.3434557e+00
  1.6558216e+00
 -2.5025526e-01
 -3.7314758e-01
 -1.2482268e+00
 -1.8830577e+00
 -3.3034509e-01
 -2.4129725e+00
 -1.2433381e+00
 -1.6793038e+00
 -1.9764242e+00
 -8.0093265e-01
 -2.2018375e+00
  3.0382374e-01
 -2.3068854e-01
  1.8859090e+00
 -1.9700365e+00
  2.0221586e+00
 -6.1067891e-01
  8.1985569e-01
 -3.1620280e-03
 -1.0693656e+00
 -4.2403844e-01
  2.0009279e-01
  2.9715544e-01
  3.7009783e-02
 -4.2787221e-01
 -8.4775560e-02
 -1.5204514e+00
  2.2878504e+00
 -2.8874774e-02
 -1.1132852e+00
 -5.0042272e+00
  3.2424657e+00
  1.0910881e-03
  1.7569662e+00
  2.6671145e+00
  3.8409534e+00
  5.1473832e-01
 -4.1288361e-01
  6.7395493e-02
  1.9152912e-01
  5.2635199e-01
 -1.3172573e+00
 -4.5033307e+00
  5.4157943e-01
 -1.9016975e+00
  1.5104026e+00
 -2.0121765e+00
  9.4468510e-01
  8.8678634e-01
 -6.0270762e-01
 -1.5286990e+00
  1.8678763e+00
  1.6997765e-01
 -4.4487739e-01
 -7.2070591e-02
  3.1408446e+00
 -3.9296597e-01
  1.2665393e+00
 -3.7141817e+00
 -1.5001476e-01
  3.3839571e+00
  1.2446460e+00
 -1.2365497e+00
 -1.4987317e+00
  2.2578151e+00
  1.1163720e+00
 -1.7817937e+00
 -1.5634650e+00
  1.0020045e+00
  9.5152408e-01
  1.0119718e-01
  3.3722389e-01
 -1.3927757e+00
 -5.1647598e-01
  3.2248953e-01
  4.9700746e-01
  4.4882318e-01
 -1.0741058e-02
 -9.7826375e-03
  1.4722338e+00
  9.6078008e-01
 -2.2615221e+00
  9.3459617e-03
  2.9588753e-01
  1.2000971e-01
 -1.6635643e+00
 -1.2304391e+00
  6.7586772e-02
 -8.1462502e-02
  1.0824383e+00
  2.2526629e-02
  1.8456410e+00
  1.6908413e+00
  2.3892689e+00
  1.7141100e+00
 -3.2143974e+00
  1.0859071e+00
 -2.4914491e+00
 -3.9038745e-01
 -9.3870288e-01
 -1.0560073e+00
 -1.2251246e+00
 -8.5589960e-03
 -5.4907614e-01
 -1.1555419e+00
  1.3862035e+00
  1.6649371e-01
 -3.7924750e+00
 -1.0411253e+00
  4.9642301e-01
  1.0207731e-03
 -2.1210756e+00
  2.6952102e+00
  2.6789701e+00
 -4.0684551e-01
 -1.6608099e+00
  1.6507732e+00
 -1.0904622e+00
 -7.8712100e-01
 -9.2225516e-01
 -6.8592751e-01
 -1.7134864e+00
  7.8052090e-04
 -2.5736887e+00
 -3.2535359e-01
 -2.3537633e+00
  1.9765435e-01
 -3.1313539e-01
 -5.0614405e-01
 -3.8686934e-01
  2.4357678e-01
 -3.3076684e+00
  1.0600271e+00
 -1.1740609e+00
  1.4093579e+00
 -3.2605155e+00
  3.2465312e+00
 -6.3166612e-01
 -1.9721769e+00
  4.1935830e+00
 -2.1797369e+00
  1.8414245e+00
  9.2273837e-01
  1.2670648e+00
  1.7786187e+00
 -7.6882404e-01
  7.8067887e-01
 -2.5439720e+00
  5.1761975e+00
 -7.6985824e-01
  3.3444087e-03
 -1.0090408e+00
 -2.5815168e-01
 -1.3563461e+00
 -1.2427050e-01
  1.3137276e+00
 -1.8519346e+00
  1.1660215e+00
 -1.3674831e-01
  7.8542292e-01
  2.9015033e+00
 -9.8978662e-01
  1.1916995e+00
  4.0811848e-02
  5.7397699e-01
  1.2699575e+00
  1.4671832e+00
 -6.6203135e-01
 -2.2581834e-01
  1.8943626e+00
 -7.2921813e-01
  7.8645575e-01
 -2.2244893e-01
  8.8661343e-01
  4.0364187e-02
  4.6819949e-01
  2.4289615e-02
  4.6348470e-01
  7.2653389e-01
  4.8185292e-01
  4.2988801e-01
 -1.1274265e-01
 -2.1248201e-01
 -4.2794861e-02
  1.8323261e+00
 -3.7868908e-01
 -2.2969183e-03
 -8.7305272e-01
  2.6200128e+00
 -1.2646596e+00
 -8.5363403e-04
  1.5226651e+00
 -3.9514258e+00
  7.9701781e-02
 -1.7645223e+00
  4.7799592e+00
  2.3914824e+00
  2.8958855e-02
  1.6620555e+00
 -1.0410835e+00
  2.7988319e+00
  7.0708340e-01
 -8.7818384e-01
 -2.5184109e+00
 -6.8910092e-01
  3.8881853e-02
 -1.9471668e-01
 -2.0843251e+00
 -3.3200275e-02
 -8.6087966e-01
  4.6028462e-01
  1.5959138e-01
  1.8474528e+00
 -7.4265486e-01
 -1.6764686e+00
 -3.4310052e-01
  1.2752504e+00
 -2.4907735e-01
 -5.6077039e-01
 -3.6295676e-01
  9.2425704e-01
 -7.6041003e-03
 -5.9806657e-01
 -7.3944867e-01
  2.7693373e-01
 -1.4932929e-01
  5.5964536e-04
 -5.7099015e-01
  2.5843242e-01
 -1.8094912e-01
 -4.9117187e-01
 -7.5170738e-01
  3.8628090e-02
 -9.1979116e-02
  1.0162698e+00
  4.3500236e-01
 -8.1281900e-01
  6.5988868e-02
 -8.9443862e-01
  2.3047802e+00
 -5.7786608e+00
 -5.0046593e-01
  1.8972547e+00
 -4.4292431e+00
 -1.3613539e+00
  1.4614078e+00
 -3.0261045e+00
 -5.3568679e-01
 -4.2807227e-01
  2.4984556e-01
  1.9001511e-01
  1.8501554e+00
 -4.6348697e-01
 -9.7313738e-01
  1.1604303e+00
 -3.5818234e-01
 -7.3032337e-01
 -9.0284657e-01
 -3.1650109e+00
 -1.8296599e+00
 -7.9949915e-01
  1.5541883e+00
 -1.5768726e+00
 -3.7920856e-01
 -3.5734300e-02
  1.3593681e+00
  3.8359102e-02
  1.8825308e+00
  3.8162196e-01
  1.1704699e+00
 -5.3408355e-01
  2.7524281e+00
 -1.0410266e+00
 -3.6047143e-01
 -1.3693615e+00
  2.0731270e+00
 -1.7619604e+00
 -5.4633822e-02
 -9.3682539e-01
  1.2687503e+00
 -1.3906385e+00
  4.1469503e-02
 -2.2505622e-01
  5.2352130e-01
 -3.2141218e-01
  3.6852995e-01
 -5.6675869e-01
  1.4570833e+00
  1.5801760e+00
 -7.4115616e-01
 -3.8635526e+00
 -5.7475396e-02
  4.4039340e+00
 -9.3035948e-01
  1.9875029e+00
  2.4521186e+00
 -6.0434443e-01
 -1.6965147e+00
 -1.7542609e+00
  9.0041232e-01
 -5.2731299e+00
 -1.7415322e+00
 -2.3206582e+00
 -4.9604243e-01
 -2.9630818e+00
 -4.1321781e-01
  1.8551619e+00
 -8.5950750e-01
  5.5959088e-01
  8.8074881e-01
 -2.9672961e+00
  7.2421178e-02
  4.7235689e+00
  1.3127292e+00
 -2.9938157e+00
 -2.5481275e-01
  3.2883062e+00
  7.8358465e-01
 -5.4930985e-01
 -2.8222355e-01
  5.7223219e-01
  4.0423274e-01
  1.3487743e-01
 -8.3132190e-01
 -1.5851578e+00
  3.1930640e-01
 -2.3898447e+00
 -5.5938727e-01
 -5.5289364e-01
  6.7486274e-01
 -2.5217412e+00
 -7.1139294e-01
  1.7058896e-01
  5.8506685e-01
 -1.0241082e+00
 -2.3168905e-01
  4.4444779e-01
  3.2715064e-01
  1.6366076e-01
  2.2284999e-01
 -2.2869010e-01
  5.0454682e-01
  2.9725027e-01
 -3.4283084e-01
  7.7304250e-01
 -1.8408140e+00
 -3.8673377e+00
 -4.8316047e-01
  3.2473230e+00
  2.2030435e+00
 -1.6059976e+00
  2.1059766e+00
  1.0790484e+00
  6.3242996e-01
  1.1603482e-01
  2.8481872e+00
  1.4154282e-01
 -2.2077267e+00
 -3.3087420e+00
  6.5117264e-01
  5.3670806e-01
 -1.3337334e+00
 -2.5760903e+00
  1.5641192e+00
 -1.9980460e-01
 -4.8446596e-01
  3.1726198e+00
  4.9501830e-01
 -1.0048612e+00
 -2.4365510e-01
 -1.2526652e+00
  9.7074336e-01
 -8.2408941e-01
 -1.1967220e+00
 -4.5553918e+00
 -5.6767251e-02
 -1.3124582e+00
 -1.2382761e+00
 -1.6072090e+00
 -2.5224349e-01
 -1.1890423e+00
 -1.0253881e+00
  2.2491438e+00
 -6.4771217e-01
 -6.7822403e-01
 -3.8604963e-01
  1.0059580e+00
 -1.6621475e-01
  1.0523241e-01
 -9.7672962e-02
 -1.2158525e+00
 -5.5863891e-02
 -3.4612858e-01
  3.1414595e-01
 -5.6730801e-01
  2.4035492e+00
 -3.7763162e+00
  2.7696071e+00
  7.1317410e-01
 -3.5658580e-01
  2.7805090e+00
 -1.2804204e-01
 -4.5956140e+00
  2.8675964e-01
  1.8448704e+00
  1.6666636e-01
  2.1274289e-04
  1.6072798e+00
 -2.0394611e+00
 -2.1708594e-01
 -1.2331755e-03
  3.0705888e-02
 -1.9585830e+00
  1.7909890e-01
 -3.5762565e+00
  1.4860952e+00
 -2.3097016e-01
  5.7565790e-01
 -1.7928659e-03
  3.4887969e-01
 -1.4817895e-01
  4.9446902e-01
 -5.5357295e-01
 -3.8572791e-01
 -1.3361620e+00
  1.9475636e-01
 -1.0621746e+00
 -8.2619601e-01
 -1.3768555e+00
 -1.6293697e-01
 -1.4891591e+00
  4.0494746e-01
 -7.1495348e-01
 -3.4737563e-01
 -1.8858087e-01
  1.1913979e+00
  2.6847370e-02
 -2.7330351e-01
  2.2961536e-02
  1.0410688e+00
  5.5711381e-02
 -8.5725673e-02
  1.2437239e-03
  1.2437239e-03
  1.2437239e-03
  1.2437239e-03
  1.2437239e-03
  1.1837061e-02
  1.1837061e-02
  1.1837061e-02
  1.1837061e-02
  1.1837061e-02
  2.9551580e-03
  2.9551580e-03
  2.9551580e-03
  2.9551580e-03
  2.9551580e-03
  1.2858585e-03
  1.2858585e-03
  1.2858585e-03
  1.2858585e-03
  1.2858585e-03
  9.7502593e-04
  9.7502593e-04
  9.7502593e-04
  9.7502593e-04
  9.7502593e-04
  6.6136383e-04
  6.6136383e-04
  6.6136383e-04
  6.6136383e-04
  6.6136383e-04
